digraph Tree {
node [shape=box, style="filled, rounded", color="black", fontname=helvetica] ;
edge [fontname=helvetica] ;
0 [label="exang_ca <= -0.7\ngini = 0.5\nsamples = 100.0%\nvalue = [0.46, 0.54]\nclass = No Disease", fillcolor="#e0f0fb"] ;
1 [label="thal_oldpeak2 <= 0.1\n0.27\n43.6%\n[0.16, 0.84]\nNo Disease", fillcolor="#5fb0ea"] ;
0 -> 1 [labeldistance=2.5, labelangle=45, headlabel="True"] ;
2 [label="chol <= 1.57\n0.08\n31.7%\n[0.04, 0.96]\nNo Disease", fillcolor="#42a1e6"] ;
1 -> 2 ;
3 [label="trestbps <= 1.19\n0.03\n30.0%\n[0.01, 0.99]\nNo Disease", fillcolor="#3c9ee5"] ;
2 -> 3 ;
4 [label="0.0\n28.6%\n[0.0, 1.0]\nNo Disease", fillcolor="#399de5"] ;
3 -> 4 ;
5 [label="0.44\n1.3%\n[0.33, 0.67]\nNo Disease", fillcolor="#9ccef2"] ;
3 -> 5 ;
6 [label="0.5\n1.8%\n[0.5, 0.5]\nDisease", fillcolor="#ffffff"] ;
2 -> 6 ;
7 [label="age <= -0.37\n0.5\n11.9%\n[0.48, 0.52]\nNo Disease", fillcolor="#f1f8fd"] ;
1 -> 7 ;
8 [label="thal_oldpeak2 <= 0.51\n0.38\n5.3%\n[0.75, 0.25]\nDisease", fillcolor="#eeab7b"] ;
7 -> 8 ;
9 [label="fbs_chol2 <= -0.4\n0.5\n2.6%\n[0.5, 0.5]\nDisease", fillcolor="#ffffff"] ;
8 -> 9 ;
10 [label="0.0\n1.3%\n[1.0, 0.0]\nDisease", fillcolor="#e58139"] ;
9 -> 10 ;
11 [label="0.0\n1.3%\n[0.0, 1.0]\nNo Disease", fillcolor="#399de5"] ;
9 -> 11 ;
12 [label="0.0\n2.6%\n[1.0, 0.0]\nDisease", fillcolor="#e58139"] ;
8 -> 12 ;
13 [label="thal_oldpeak2 <= 0.51\n0.39\n6.6%\n[0.27, 0.73]\nNo Disease", fillcolor="#81c1ee"] ;
7 -> 13 ;
14 [label="0.48\n2.2%\n[0.6, 0.4]\nDisease", fillcolor="#f6d5bd"] ;
13 -> 14 ;
15 [label="age <= 1.12\n0.18\n4.4%\n[0.1, 0.9]\nNo Disease", fillcolor="#4fa8e8"] ;
13 -> 15 ;
16 [label="0.0\n3.1%\n[0.0, 1.0]\nNo Disease", fillcolor="#399de5"] ;
15 -> 16 ;
17 [label="0.44\n1.3%\n[0.33, 0.67]\nNo Disease", fillcolor="#9ccef2"] ;
15 -> 17 ;
18 [label="cp <= -0.45\n0.43\n56.4%\n[0.69, 0.31]\nDisease", fillcolor="#f1ba93"] ;
0 -> 18 [labeldistance=2.5, labelangle=-45, headlabel="False"] ;
19 [label="sex_oldpeak2 <= -1.34\n0.24\n35.2%\n[0.86, 0.14]\nDisease", fillcolor="#e99559"] ;
18 -> 19 ;
20 [label="restecg_trestbps2 <= 0.9\n0.44\n2.6%\n[0.33, 0.67]\nNo Disease", fillcolor="#9ccef2"] ;
19 -> 20 ;
21 [label="0.0\n1.3%\n[0.0, 1.0]\nNo Disease", fillcolor="#399de5"] ;
20 -> 21 ;
22 [label="0.44\n1.3%\n[0.67, 0.33]\nDisease", fillcolor="#f2c09c"] ;
20 -> 22 ;
23 [label="oldpeak2 <= -0.65\n0.17\n32.6%\n[0.91, 0.09]\nDisease", fillcolor="#e88e4e"] ;
19 -> 23 ;
24 [label="age2_trestbps2 <= -0.26\n0.42\n7.5%\n[0.71, 0.29]\nDisease", fillcolor="#f0b58b"] ;
23 -> 24 ;
25 [label="fbs <= 0.99\n0.15\n5.3%\n[0.92, 0.08]\nDisease", fillcolor="#e78c4b"] ;
24 -> 25 ;
26 [label="0.0\n4.0%\n[1.0, 0.0]\nDisease", fillcolor="#e58139"] ;
25 -> 26 ;
27 [label="0.44\n1.3%\n[0.67, 0.33]\nDisease", fillcolor="#f2c09c"] ;
25 -> 27 ;
28 [label="0.32\n2.2%\n[0.2, 0.8]\nNo Disease", fillcolor="#6ab6ec"] ;
24 -> 28 ;
29 [label="thal_trestbps2 <= -2.09\n0.07\n25.1%\n[0.96, 0.04]\nDisease", fillcolor="#e68640"] ;
23 -> 29 ;
30 [label="0.44\n1.3%\n[0.67, 0.33]\nDisease", fillcolor="#f2c09c"] ;
29 -> 30 ;
31 [label="sex_trestbps2 <= -1.32\n0.04\n23.8%\n[0.98, 0.02]\nDisease", fillcolor="#e5833d"] ;
29 -> 31 ;
32 [label="0.38\n1.8%\n[0.75, 0.25]\nDisease", fillcolor="#eeab7b"] ;
31 -> 32 ;
33 [label="0.0\n22.0%\n[1.0, 0.0]\nDisease", fillcolor="#e58139"] ;
31 -> 33 ;
34 [label="restecg_slope <= 0.87\n0.48\n21.1%\n[0.4, 0.6]\nNo Disease", fillcolor="#bbddf6"] ;
18 -> 34 ;
35 [label="sex_trestbps2 <= 0.19\n0.49\n15.0%\n[0.56, 0.44]\nDisease", fillcolor="#fae4d5"] ;
34 -> 35 ;
36 [label="exang_trestbps2 <= -0.53\n0.38\n5.3%\n[0.25, 0.75]\nNo Disease", fillcolor="#7bbeee"] ;
35 -> 36 ;
37 [label="0.38\n1.8%\n[0.75, 0.25]\nDisease", fillcolor="#eeab7b"] ;
36 -> 37 ;
38 [label="0.0\n3.5%\n[0.0, 1.0]\nNo Disease", fillcolor="#399de5"] ;
36 -> 38 ;
39 [label="oldpeak <= -0.42\n0.4\n9.7%\n[0.73, 0.27]\nDisease", fillcolor="#efb083"] ;
35 -> 39 ;
40 [label="fbs_ca <= 0.94\n0.5\n3.5%\n[0.5, 0.5]\nDisease", fillcolor="#ffffff"] ;
39 -> 40 ;
41 [label="0.32\n2.2%\n[0.8, 0.2]\nDisease", fillcolor="#eca06a"] ;
40 -> 41 ;
42 [label="0.0\n1.3%\n[0.0, 1.0]\nNo Disease", fillcolor="#399de5"] ;
40 -> 42 ;
43 [label="chol <= -0.28\n0.24\n6.2%\n[0.86, 0.14]\nDisease", fillcolor="#e9965a"] ;
39 -> 43 ;
44 [label="exang_trestbps2 <= -0.73\n0.41\n3.1%\n[0.71, 0.29]\nDisease", fillcolor="#efb388"] ;
43 -> 44 ;
45 [label="0.0\n1.8%\n[1.0, 0.0]\nDisease", fillcolor="#e58139"] ;
44 -> 45 ;
46 [label="0.44\n1.3%\n[0.33, 0.67]\nNo Disease", fillcolor="#9ccef2"] ;
44 -> 46 ;
47 [label="0.0\n3.1%\n[1.0, 0.0]\nDisease", fillcolor="#e58139"] ;
43 -> 47 ;
48 [label="0.0\n6.2%\n[0.0, 1.0]\nNo Disease", fillcolor="#399de5"] ;
34 -> 48 ;
}